{
  "labels": [
    "Critical",
    "High",
    "Low",
    "Medium"
  ],
  "layers": [
    {
      "weights": [
        [
          -0.6066700203388388,
          0.7657689251963048,
          -0.08795580796701083
        ],
        [
          1.5005563683657228,
          0.28163265641339874,
          0.5787423905490517
        ],
        [
          0.8757157601366026,
          -0.11816040234401931,
          0.09734492501383502
        ],
        [
          -3.8301254043959194e-107,
          4.1505976104967407e-57,
          -7.50944624554866e-127
        ],
        [
          4.301727832660435e-52,
          -4.332091038527505e-82,
          -8.280084198178448e-109
        ],
        [
          -0.6597900472085548,
          0.3457190259800588,
          -0.4501016902938864
        ],
        [
          -8.794866842292421e-37,
          3.1976792280860287e-115,
          -1.8716296024336245e-105
        ],
        [
          -0.09287907818955536,
          -0.37494532116957724,
          -0.45452414315931233
        ],
        [
          6.811453129009936e-107,
          -5.4066752446900923e-104,
          -1.1914768553845826e-37
        ],
        [
          0.7485035156994737,
          -0.09110204650366621,
          1.1441383477804214
        ],
        [
          -0.4719319115798672,
          -0.23763509836420263,
          0.7421597246915657
        ],
        [
          1.282340292101974,
          0.10411928326781743,
          0.26443460183726214
        ]
      ],
      "biases": [
        0.6876194164442627,
        -0.5184636003706651,
        1.072697258478472,
        -0.07570177282561841,
        -0.4780880185392653,
        0.9918943206188459,
        -0.5889571111981224,
        1.1105480506132976,
        -0.30512187014866876,
        0.9111069217122199,
        -0.067010400422819,
        -0.3281116482641013
      ],
      "activation": "relu"
    },
    {
      "weights": [
        [
          0.9076259696923409,
          -1.3397999057335075,
          0.23543384614430293,
          -1.5450229257939101e-38,
          -2.2435706967108848e-57,
          1.778887577308003,
          -1.0193153675319087e-126,
          1.4537665322649522,
          2.6497933743902144e-48,
          0.39688330510427156,
          0.5822880253584964,
          -0.4745421560925557
        ],
        [
          -7.123252887500273e-66,
          1.1696737118297814e-67,
          -1.5449878628233504e-122,
          1.0407471739907423e-65,
          -4.7553104958769264e-105,
          1.7164905678930253e-125,
          1.476889699925193e-116,
          3.374600092709331e-77,
          -1.560610565668919e-66,
          -2.9201132054356042e-52,
          -8.578922324376249e-128,
          -3.620754521247908e-87
        ],
        [
          1.5729155405558521,
          -1.4463098693054033,
          0.20322004221632134,
          -2.9346286389110822e-86,
          2.3600004399317288e-94,
          1.0617972068970687,
          -3.7480342677425096e-41,
          0.7367473239963781,
          4.410719544661132e-103,
          0.4835700629248698,
          0.8394057076622665,
          -0.8129246231886782
        ],
        [
          1.1558837003059286,
          -0.8341080887936483,
          0.6073549038044399,
          5.138679591371767e-82,
          1.4411379799427594e-46,
          2.017527872803587,
          5.335868633676138e-53,
          0.8779536266591893,
          1.5358848701374743e-56,
          -0.39213019750376377,
          0.06966250653505172,
          0.10638340561757267
        ],
        [
          -5.260717581133905e-46,
          -7.286722040950539e-108,
          -3.624843291092192e-48,
          -5.638299967277051e-74,
          -1.0769792084413596e-90,
          1.9493524495508214e-75,
          -3.8987425873847844e-42,
          6.174606775473804e-74,
          -7.841722937200792e-68,
          -3.991234453183159e-74,
          -1.0256094890802419e-54,
          1.4035888204819848e-43
        ],
        [
          -1.800845984949437e-52,
          -6.400833924665698e-82,
          1.82699647807772e-39,
          -3.905337731740401e-48,
          -4.584149134293446e-93,
          -2.4606015289724712e-119,
          4.763501797697916e-102,
          -2.213907187455432e-48,
          2.3065930027992833e-66,
          1.5728685224803032e-116,
          -3.796130013461757e-96,
          1.0528543245398989e-77
        ],
        [
          0.1333843865146747,
          1.5485413604308187,
          1.2520374784181907,
          3.34208227419134e-101,
          1.1153071568070516e-82,
          -0.39087275685947726,
          -1.0708059840422417e-90,
          -0.12126126552196133,
          -6.663286353103718e-53,
          1.1809055702468998,
          0.6353431850874225,
          0.980225871638802
        ],
        [
          1.6574128964031398e-48,
          -2.1910406481862404e-100,
          -3.447128740682806e-68,
          -2.2773009760548677e-54,
          -1.3687870425617288e-102,
          1.8301092044507512e-128,
          4.58741280277924e-128,
          5.300822088976788e-62,
          2.1189098378044732e-123,
          -9.590733017775173e-58,
          -5.916008264174207e-93,
          -9.494601602399151e-88
        ]
      ],
      "biases": [
        0.2678721503947874,
        -0.5073149312179999,
        0.8075384247731409,
        0.34866009852364493,
        -0.4913304109215332,
        -0.24248064944226888,
        0.7145691671707686,
        -0.28529565463139184
      ],
      "activation": "relu"
    },
    {
      "weights": [
        [
          -3.7159541092435644,
          -3.626576871787867e-84,
          -2.711632842696019,
          -2.351721453148574,
          -8.901538465512716e-30,
          -3.4834388006141665e-127,
          0.7349253901718603,
          1.9283208805449226e-86
        ],
        [
          -0.49257069702621253,
          -7.551865832594549e-62,
          -0.13946289262791875,
          -0.3915263981582536,
          1.883384880141343e-106,
          -1.1332370368895038e-59,
          0.4975187162027879,
          -5.164719565753293e-38
        ],
        [
          2.0851997605709767,
          5.563652743998857e-62,
          1.0855498282008826,
          1.4620436714442353,
          3.9261547692366574e-82,
          2.3888775372495633e-90,
          -1.119898615275587,
          3.323097697842253e-33
        ],
        [
          0.7918914187189041,
          4.756318072358852e-69,
          1.3517227119053183,
          0.03740279538505668,
          -9.941211707837275e-28,
          -1.0928636926817746e-48,
          -0.17808415161760696,
          1.9685368426901072e-39
        ]
      ],
      "biases": [
        -0.14185578509636673,
        0.6450590295366563,
        -0.25808601034878675,
        0.10190824469470311
      ],
      "activation": "softmax"
    }
  ]
}